bn:01570467n 0.205120 0.138869 0.110500 -0.165527 -0.115469 0.107545 -0.033492 0.008905 0.133190 -0.161425 0.022314 -0.209937 0.377957 -0.192473 -0.209645 -0.135983 -0.280896 0.800726 0.143736 -0.342089 -0.508189 -0.399881 0.094298 0.042051 0.419514 0.247634 0.647675 0.129730 0.139844 0.226399 -0.346261 0.096942 0.204277 0.103945 0.261240 -0.677452 -0.327607 -0.139499 0.113385 -0.184407 0.050856 -0.304850 0.105108 0.541936 0.048692 0.255271 -0.014915 0.355182 -0.065034 0.081842 -0.055717 0.177989 0.171822 0.006756 0.263740 0.124881 -0.230893 -0.197984 0.270783 0.007334 0.014423 0.166568 0.150476 -0.222223 -0.063672 -0.120253 0.715573 0.187929 0.128455 -0.105119 -0.279144 0.041371 -0.273595 0.104571 -0.194521 0.642980 -0.449631 0.397892 -0.264390 -0.441903 -0.082315 0.064552 -0.480905 -0.040219 0.447687 -0.067063 -0.136967 0.355125 -0.284237 0.234503 0.128974 -0.253859 0.222508 -0.034741 -0.046697 -0.199733 0.258786 0.647900 -0.026790 0.195977 0.129656 -0.085052 -0.038461 -0.000486 0.439037 -0.003460 -0.179088 -0.199963 -0.042806 -0.055873 0.094983 0.127432 0.022217 0.011269 -0.098919 0.323163 -0.123054 -0.338022 0.148198 -0.285455 0.030785 0.225766 -0.229686 -0.065281 -0.125573 -0.138563 -0.582553 0.091295 0.039234 -0.052187 -0.319289 0.018998 0.280480 0.030255 -0.096197 -0.206378 -0.112257 -0.071142 -0.192311 0.278411 0.507970 -0.320537 -0.475992 0.207048 -0.019867 -0.399782 -0.104742 -0.107866 -0.348608 -0.459150 -0.247409 0.240708 0.278478 0.022492 0.013578 0.481293 -0.015396 -0.129355 -0.680898 0.065898 0.502496 -0.124656 -0.115526 -0.079077 -0.009994 0.115723 0.393365 -0.027346 -0.191078 0.169398 -0.582766 -0.342470 0.027896 0.564119 0.012453 -0.348377 -0.077482 -0.533834 0.100694 0.008692 -0.030019 -0.357369 0.461468 -0.105761 0.257512 0.289119 -0.030258 0.190310 -0.019140 0.052284 -0.371752 0.129270 -0.152178 -0.395761 -0.025505 0.324572 -0.043896 -0.057622 -0.749355 -0.300745 -0.184679 0.400258 0.044612 0.025091 0.020514 -0.352956 -0.295168 -0.588932 -0.202114 -0.075807 -0.261336 -0.092636 0.007032 -0.275274 -0.314488 -0.058898 -0.192683 -0.012394 0.103831 0.343768 0.011878 0.007005 0.304044 -0.043986 0.147966 -0.072095 -0.226461 -0.186888 0.075106 0.361072 0.045746 -0.105444 -0.302042 -0.026755 -0.217179 0.127398 -0.113577 0.316304 0.189533 0.087916 -0.078157 0.028506 0.463857 0.401337 -0.489130 0.135817 -0.320943 -0.114888 0.014874 -0.145711 -0.161821 0.171523 -0.539930 0.098263 -0.027572 0.215323 -0.070588 0.141204 0.318713 -0.066057 -0.314601 0.242361 -0.014728 -0.185388 -0.126242 0.365770 -0.189556 0.045241 -0.321803 0.062072 0.022096 -0.125638 0.052903 -0.060564 0.063641 0.093218 -0.121254 -0.016117 0.175502 -0.188371 0.270163 -0.146052 0.341103 -0.098583 -0.231850 0.290636 0.083821 -0.469343 -0.279176 0.189903 -0.278679 -0.094917 -0.493350 -0.011784 0.094397 0.357090 -0.481766 0.353285 -0.365361 -0.134400 
bn:00543377n 0.406248 -0.250992 0.402812 -0.213234 -0.520098 0.250962 -0.124163 0.535918 -0.076923 -0.410937 0.224873 0.226111 -0.374108 0.225629 -0.129515 0.403437 -0.374824 0.256229 -0.691955 -0.019317 0.003954 -0.023135 -1.029741 0.024482 0.484603 -0.480322 0.381413 0.064126 0.114383 0.191859 -0.177710 -0.067792 0.925026 0.214063 0.136128 -0.488085 -0.416388 -0.481612 0.525944 -0.014147 0.354630 0.061891 0.194019 0.466797 0.155081 0.135302 0.006233 -0.033631 -0.250786 -0.260520 -0.657595 -0.371868 -0.796838 -0.554698 0.065050 -0.076802 -0.678013 0.134002 0.615725 0.227566 -0.162222 -0.240204 0.825391 0.001027 0.269830 -0.277002 -0.014201 0.046746 0.152012 -0.216219 0.411367 -0.608896 -0.036046 0.013656 -0.424377 -0.236548 -0.386135 0.165011 -0.368780 -0.317173 0.009718 0.205261 -0.505698 -0.487690 0.066838 0.275453 0.325414 0.790823 0.306690 0.085593 0.341892 -0.129679 0.029746 -0.842217 -0.174018 -0.034885 -0.456877 -0.361127 0.053825 -0.659906 -0.550330 -0.322879 -0.184079 -0.805779 0.133565 0.251794 -0.174289 0.022775 -0.295869 0.408636 0.296658 0.376892 -0.356922 0.570890 -0.063127 0.064292 1.081670 0.274652 0.176122 0.250509 -0.868154 -0.082631 0.712199 0.363063 0.419640 0.300355 0.232018 0.123876 0.154096 0.440715 -0.376198 1.044178 -0.613938 -0.364749 -0.119813 -0.180375 0.077008 0.485555 0.348348 0.612928 0.235547 -0.714135 0.387663 0.052938 -0.310460 0.552104 0.504353 0.632832 -0.289471 0.208707 -0.757330 0.261123 0.666722 0.435998 -0.017704 -0.368524 0.095218 -0.299419 -0.019679 -0.015370 -0.288471 -0.390084 -0.182752 0.292415 0.439022 -0.818667 0.477191 -0.140137 -0.315447 -0.205680 -0.111364 -0.092198 -0.002452 0.625003 0.493347 -0.862020 0.099205 -0.095242 -0.287652 0.239490 -0.019068 -0.229446 -0.858060 0.338116 0.014636 -0.118704 -0.102639 -0.244020 -0.607573 -0.120297 -0.761076 -0.158342 -0.581956 0.231775 0.656170 -0.000865 0.148215 -0.023928 -0.455870 0.225504 0.848144 0.684584 0.066855 0.232142 -0.073384 -0.210688 0.201858 -0.287715 -0.173671 -0.117077 -0.092983 -0.161376 -0.142845 0.090644 -0.815539 -0.517191 -0.016042 -0.089724 0.070310 0.213987 -0.063700 -0.270871 0.033839 -0.594547 -0.301649 0.197307 0.129687 -0.083352 0.243145 1.005455 0.660663 -0.560436 0.274283 0.651235 0.406262 0.335598 -0.025744 -0.062742 0.347541 -0.138086 0.430883 -0.408483 -0.179450 -0.238767 0.444088 -0.016817 -0.183181 0.008608 -0.090957 -0.018970 0.050763 -0.642950 -0.161074 -0.105052 -0.529640 0.201892 0.267118 0.681779 -0.299036 0.252939 -0.781800 0.901908 -0.990463 -0.097874 0.094582 0.229540 0.086907 0.696798 -0.001793 -0.030635 0.002154 -0.708552 0.628928 -0.481986 -0.446919 -0.302638 -0.533681 0.312806 -0.580465 -0.742576 -0.365567 0.198857 0.380431 -0.446881 -1.063026 0.440494 -0.277655 -0.027421 -0.933350 -0.590746 0.035809 0.370962 0.317174 -0.299861 0.062667 -0.534326 -0.305578 -0.020269 -0.019797 0.236075 
bn:00021464n -0.139909 0.037482 0.390881 0.108512 -0.409898 0.088201 -0.036477 0.334916 -0.123047 0.463284 -0.058476 0.086117 -0.211895 -0.046001 0.054322 -0.310631 0.213879 0.132448 0.192080 0.071531 0.046320 0.162113 0.099909 0.199602 -0.024245 -0.360532 0.374956 0.438866 0.387141 -0.134921 0.465571 -0.517936 -0.416761 -0.569325 0.579020 -0.327694 0.144459 -0.251095 -0.205765 0.321717 0.080793 0.302876 0.204448 0.510139 -0.236559 0.454735 -0.515620 0.228062 -0.550519 0.446694 0.235320 0.062452 -0.176519 0.157457 -0.028539 -0.272345 0.059290 -0.004614 0.575737 0.163524 0.344782 -0.155175 -0.042735 -0.283171 0.101567 -0.185391 -0.174690 0.289588 -0.070817 0.082884 -0.203545 0.007731 -0.266934 -0.028498 -0.270948 -0.362281 0.090814 -0.011625 -0.479743 0.282255 0.195872 -0.554986 -0.086181 -0.318349 0.392078 0.046064 -0.498037 0.003786 -0.314514 0.346886 0.099350 -0.147675 0.190039 -0.603596 0.367562 -0.000603 -0.335277 -0.135187 -0.116324 0.223296 -0.025461 0.072171 -0.321570 -0.026374 0.037283 0.017298 -0.011160 0.321796 0.240475 -0.013437 0.222127 0.262470 0.346012 0.026387 0.052687 -0.313883 0.224740 0.401868 -0.202627 -0.069616 -0.196566 0.221707 -0.342605 -0.176755 0.019698 0.109870 -0.541608 0.122766 0.048412 -0.284829 0.299543 0.412095 0.341277 -0.523381 0.061981 -0.441956 0.594396 0.208074 0.212208 0.385982 -0.479329 -0.192868 0.246546 0.024544 0.154149 0.125768 -0.468970 0.028449 0.055103 0.247602 0.026005 0.072092 0.224760 -0.131658 -0.360673 0.432753 -0.152315 0.079877 0.001239 0.043351 -0.197313 -0.008902 -0.112402 0.041659 0.648915 -0.248256 -0.192758 0.061635 -0.213113 0.396846 -0.315251 0.191006 0.155022 0.631416 0.441150 -0.727560 -0.049823 0.532233 -0.188307 0.179393 -0.429084 -0.201800 -0.019115 0.097671 -0.371691 -0.157043 -0.177017 0.090142 -0.204437 -0.327472 -0.305756 0.145795 0.653974 0.074298 0.182860 0.427057 0.254864 0.158989 -0.367004 -0.180316 -0.012646 0.296099 -0.394287 0.180038 0.466027 -0.114066 -0.372198 0.306542 -0.548739 0.374019 -0.060901 -0.400973 -0.176137 0.074488 0.017502 -0.298730 0.257824 0.222330 -0.024779 0.635994 -0.427481 0.565894 -0.094923 0.507499 0.159470 0.196356 0.051862 -0.424548 0.141104 -0.288721 0.292890 0.172415 0.409713 -0.311732 0.347040 -0.248120 0.207412 0.100592 0.097337 0.157830 -0.287348 -0.271722 0.025166 -0.066602 -0.073607 -0.340969 -0.134409 -0.577372 -0.209160 0.175993 0.171780 -0.156350 -0.254880 0.033365 0.024663 0.277794 0.087597 0.054328 -0.105202 0.179604 -0.104647 -0.113830 -0.293560 -0.503890 -0.181408 -0.379547 -0.317693 0.281401 -0.003775 0.157579 0.080645 -0.184581 0.293016 0.403501 0.299274 0.030620 -0.309303 -0.023228 0.218745 -0.471311 0.025721 0.430127 0.292206 0.401442 -0.206607 -0.127100 -0.092326 0.020380 -0.334806 0.590946 -0.130454 0.275181 0.021246 -0.675759 0.034351 -0.395377 -0.083545 -0.164254 -0.157521 0.279395 
bn:00532387n -0.727224 -0.144101 -0.417876 0.305452 -0.392811 0.508147 0.576543 -0.186835 0.099165 -0.214103 -0.098143 -0.233011 -0.607292 -0.161224 0.261532 -0.068658 -0.177464 0.047643 -0.395770 -0.790279 0.361162 -0.246454 -0.020084 -0.364849 -0.489843 -0.076285 -0.050629 0.098219 -0.308156 -0.132707 -0.270834 -0.257417 -0.357311 0.117956 0.099829 -0.359654 0.020236 0.357055 0.241983 -0.248489 0.187677 -0.332987 0.516041 0.341053 -0.253901 0.001644 0.554062 0.225019 0.324887 -0.075780 -0.028555 0.288648 -0.571988 -0.643365 0.143994 -0.367708 0.078019 -0.820844 1.039493 -0.564667 0.412137 0.046531 -0.213310 0.420458 -0.333711 -0.016231 -0.512856 -0.245671 -0.285760 -0.280338 0.293014 -0.026469 -0.056596 0.227393 0.069343 0.173874 -0.343627 -0.304967 -0.295839 0.412107 0.027141 0.043513 0.166463 -0.259849 -0.615929 -0.324412 -0.416578 0.221511 0.401072 -0.424849 -0.147778 -0.286891 -0.183708 0.099581 -0.069013 -0.374255 0.125930 0.228165 -0.204487 0.125154 0.093703 -0.079898 -0.192868 -0.478717 -0.075675 -0.077289 -0.448005 -0.060135 -0.194029 -0.207007 0.005031 -0.596530 -0.166919 -0.106595 0.232951 0.080246 0.362391 -0.024916 0.217605 0.245034 -0.382672 -0.631714 0.394227 0.136700 -0.322532 -0.060194 0.307773 -0.221522 -0.846345 0.325849 -0.291557 -0.249542 0.597189 0.162197 0.366422 -0.639024 0.447529 0.232886 0.070309 0.064379 0.415934 0.133804 0.167137 0.233602 0.073273 0.259293 0.422899 0.062257 -0.208216 -0.089341 -0.205532 0.557220 0.872617 -0.112543 -0.052737 -0.096929 -0.288477 -0.047316 -0.144563 0.233824 -0.280272 0.241040 -0.168935 -0.529746 0.428592 -0.395212 0.081382 0.196501 -0.093706 0.048864 0.726988 0.457581 0.263074 -0.274726 0.016546 -0.516131 0.017776 0.118776 0.333637 0.265034 0.202220 0.244195 -0.301687 0.347823 -0.320235 -0.293005 -0.541552 0.465312 -0.002053 0.265229 0.216328 0.129575 -0.569726 -0.341787 0.024792 -0.375897 -0.023993 0.372557 -0.331035 0.116138 -0.469510 0.700929 -0.199175 -0.229195 0.440166 0.736575 -0.109217 0.443424 -0.204444 0.018492 -0.049198 -0.235709 0.004711 0.394371 -0.009079 -0.025114 -0.188007 0.129387 -0.378352 0.334543 0.295897 -0.068510 0.065693 0.034625 -0.080060 -0.294969 -0.307647 0.173183 0.165863 -0.147865 0.183391 0.411001 0.325605 -0.576020 -0.140243 0.137041 -0.044265 -0.250764 -0.056510 0.463103 0.308773 -0.360637 -0.341000 -0.498312 -0.109989 -0.172776 0.590063 0.148418 0.472079 -0.504795 0.070995 -0.522870 0.493853 0.085716 0.658101 0.338608 0.635646 0.130572 0.239500 0.078088 -0.262616 0.172061 -0.339881 0.087102 0.252978 -0.402453 -0.616359 0.251173 0.004663 -0.318498 -0.063837 -0.062966 0.028164 -0.123699 0.225406 -0.048107 0.000799 0.144613 0.370691 0.336111 0.005593 -0.355778 0.048142 0.203664 0.236194 -0.130879 0.032549 0.499640 -0.524344 -0.496793 -0.067152 0.129602 -0.212738 0.375419 -0.267540 0.169495 -0.245413 -0.236108 0.374325 0.037109 
bn:00041192n -0.092213 -0.653014 0.387621 0.370255 -0.304298 0.281561 -0.750745 -0.564010 -0.047820 -0.303195 -0.002961 -0.039067 -0.467806 -0.016033 0.380772 -0.201339 0.118962 -0.134965 -0.253756 -0.018847 0.336960 -0.215134 -0.119556 -0.162337 -0.053053 0.428414 -0.316013 -0.022611 -0.061420 0.260068 0.283364 -0.459305 -0.402515 -0.338587 0.096429 -0.396022 -0.338733 -0.060141 -0.237901 0.621427 0.160773 -0.058530 0.196920 0.249165 -0.286675 0.307335 -0.422617 0.166171 -0.138009 -0.157793 -0.688368 -0.169413 -0.400379 -0.077462 0.079118 0.192068 0.240937 0.343481 0.551459 0.006548 -0.195044 0.419876 -0.282274 0.253635 0.144532 -0.375871 0.243622 0.118099 0.146501 0.394219 0.297217 -0.176368 -0.246650 0.370921 -0.165957 -0.192743 -0.053785 -0.429946 0.181850 -0.140260 -0.371973 -0.454873 -0.302606 -0.255980 0.048611 0.144526 -0.211628 -0.377424 -0.027441 0.344152 -0.221574 -0.147466 -0.007479 -0.311524 0.296740 -0.042098 0.330545 -0.165960 0.144402 0.224314 0.553266 0.099649 0.098744 -0.176195 -0.072656 -0.070388 0.057782 -0.267228 -0.046731 0.344885 0.336458 -0.039884 0.016907 -0.004092 -0.114948 0.278254 -0.079039 0.002405 -0.208189 0.065527 0.112312 -0.000419 0.050534 -0.308326 -0.071809 -0.186310 0.081748 0.173543 0.328263 -0.427539 -0.601289 -0.363041 -0.591560 0.379760 -0.084757 0.026336 0.183128 -0.251294 -0.179388 -0.092674 -0.277501 -0.257389 0.069086 0.197994 0.193708 0.277838 0.099343 0.420276 -0.094326 0.023107 0.738061 0.170139 0.372080 0.169923 0.270453 0.270269 0.199377 0.689216 0.118236 0.071550 -0.372554 0.057545 -0.284710 0.409754 0.190001 0.018104 0.138691 -0.497858 0.066214 -0.482409 -0.010915 0.071545 0.059814 0.115890 -0.273745 -0.712586 -0.488740 0.127760 -0.385778 0.133174 -0.391787 -0.188563 -0.382882 0.338054 0.373344 -0.097120 -0.204996 0.304703 -0.039582 0.437544 -0.245692 -0.383548 -0.121994 0.087604 0.324931 0.125601 -0.050873 0.163433 0.406257 0.455773 -0.198736 0.163465 0.342814 -0.314012 0.113108 -0.178491 0.300842 0.062415 -0.481237 -0.312364 0.339468 0.126796 0.300682 -0.071412 -0.148218 0.305523 -0.141675 -0.301569 0.219639 0.232686 0.213040 -0.079525 0.284652 -0.328830 -0.202973 -0.107244 -0.250143 0.414013 0.512497 0.210535 -0.345658 0.442170 0.472378 0.207408 -0.107523 -0.428788 -0.205719 0.306242 -0.067648 0.284665 0.158401 -0.665563 -0.112741 0.079759 -0.829156 0.130595 0.138865 -0.273251 0.141402 0.177696 -0.205104 -0.049306 -0.193232 0.035648 0.017374 0.107052 0.267917 -0.091950 0.015619 -0.465889 -0.065860 0.399286 -0.282463 0.231528 0.466709 0.124594 -0.154050 0.210761 0.355842 -0.428426 0.074389 0.423489 -0.340122 0.421013 -0.088324 0.062546 0.011169 -0.572651 -0.524290 0.144254 -0.713243 -0.685094 -0.512486 -0.066197 -0.283432 -0.153393 -0.096840 -0.368013 -0.011714 -0.105985 -0.481069 0.133195 0.234390 0.386751 -0.099151 0.155430 0.273985 -0.405785 -0.009531 0.025974 
bn:00069793n -0.292355 -0.849824 0.241610 0.104290 -0.542381 0.663883 0.322960 -0.324541 0.015155 -0.253662 -0.188857 -0.136606 -0.232621 0.217399 -0.658957 -0.097622 0.020479 0.458819 -0.454168 0.199540 -0.106260 -0.175018 -0.492395 0.319770 0.338613 0.236091 -0.461159 0.423162 0.060976 -0.234231 -0.024269 -0.172308 -0.277334 -0.161707 0.172275 -0.026777 -0.000347 0.103614 0.457010 -0.080402 0.319028 0.128189 0.544269 0.180750 -0.024510 -0.141905 0.182195 -0.053444 0.086295 -0.117117 -0.284692 0.091448 0.050565 -0.159116 -0.124570 0.105469 -0.643591 0.178864 0.435732 -0.084876 -0.019232 0.093514 -0.020879 0.292267 0.328505 -0.284078 -0.167425 0.147761 0.090327 -0.103908 0.326832 0.009856 -0.342436 0.253431 -0.399277 0.006221 -0.192347 -0.232492 -0.234951 -0.448147 -0.370650 0.091840 -0.161280 0.503656 -0.144697 -0.082630 0.150168 0.341955 -0.271788 0.199582 -0.003347 0.064179 0.154797 -0.213633 0.055120 -0.001702 0.327664 0.078243 -0.118838 0.052485 -0.138195 0.200559 -0.116180 -0.458261 0.330991 -0.091635 0.059920 0.457495 0.074100 0.073075 0.013477 0.066290 0.045422 0.208935 0.255829 0.128418 0.487285 -0.349325 -0.177793 0.085528 0.021112 0.100981 0.159397 -0.137650 0.277927 -0.012062 -0.103996 0.371001 -0.042757 0.437364 -0.551459 0.402056 -0.259797 -0.273448 0.459258 0.150606 -0.272501 -0.220693 0.093968 0.355999 -0.298320 -0.243468 0.326524 -0.002480 -0.260916 0.007261 0.383390 0.258509 0.244150 0.278761 0.355662 0.342882 0.843340 0.104836 0.075592 0.041702 0.292476 0.029360 0.326543 0.202138 -0.163518 0.526799 -0.100355 0.382893 0.704232 -0.553912 -0.034922 0.291146 0.553655 -0.003055 -0.058947 -0.382376 -0.441767 0.328418 0.156756 -0.597685 -0.216598 0.306722 0.085172 -0.045358 0.400237 -0.093734 -0.310784 0.297779 0.051628 -0.113997 -0.623948 0.003882 -0.479766 0.166209 -0.362619 0.311041 0.020721 -0.019678 -0.191578 0.164166 0.138038 -0.493814 -0.283422 0.538233 0.239504 0.328577 0.344367 -0.008909 -0.003115 0.179588 0.138469 0.191812 0.113366 0.119942 0.301826 0.490564 -0.170334 0.364234 -0.303359 0.035108 -0.432252 0.084053 0.131554 0.135078 0.471319 0.043474 0.052991 0.099336 -0.485280 -0.009554 -0.069469 0.169449 -0.126405 0.026896 0.010201 -0.124860 0.007738 -0.025015 0.132753 0.141824 0.248452 0.137886 0.058360 -0.221054 0.100640 -0.583360 0.316016 0.189838 -0.210005 0.107514 -0.289042 -0.137340 0.142946 -0.058377 0.061114 -0.816932 0.009053 -0.183748 -0.226792 -0.504514 0.217942 0.416435 -0.181017 0.204510 -0.365819 0.208411 -0.322423 -0.036111 0.152985 -0.087538 0.075510 0.159749 -0.135155 -0.007438 0.075911 0.059248 0.560739 0.155643 0.131898 -0.157131 -0.237160 0.106106 -0.285233 -0.347773 -0.016057 -0.480500 0.023183 0.031609 -0.084526 -0.077452 -0.366438 0.201606 -0.014609 -0.513715 -0.051857 0.269406 0.295708 0.178526 -0.470017 -0.018795 0.173748 -0.355580 0.058814 0.027226 
bn:00368466n 0.220653 -0.124205 0.285367 -0.103058 -0.256696 -0.074190 0.222162 0.401223 -0.302446 -0.187296 0.259467 -0.063081 -0.307713 -0.529449 -0.102222 -0.230903 -0.026920 0.017446 -0.266803 -0.139698 -0.080461 -0.343617 -0.281322 0.128857 0.193447 0.354547 -0.176885 0.473523 -0.143481 0.146884 0.097225 -0.081431 -0.263328 -0.147404 0.184310 -0.280996 -0.343926 0.288887 0.051556 -0.168835 0.113298 -0.235891 -0.334579 0.133140 0.490419 -0.345757 0.071352 -0.143258 0.065999 -0.229609 0.057555 0.585714 -0.082794 0.025169 -0.327681 0.010625 -0.226364 0.077698 0.535740 -0.125375 0.296433 0.237352 -0.122735 -0.136258 0.421987 -0.105463 0.103733 0.365604 -0.076047 -0.072898 -0.145155 -0.194205 -0.372827 -0.205316 0.046400 0.258775 -0.106702 -0.043447 -0.270737 -0.143190 0.441739 0.110923 -0.334389 0.180836 -0.172900 0.397423 -0.282358 -0.185570 -0.330988 0.464691 0.334959 -0.310957 0.215535 -0.256858 -0.169506 0.026724 0.115412 -0.135909 -0.104276 0.130503 0.037368 -0.126788 -0.274887 0.158271 -0.220687 0.110018 -0.053718 -0.134361 -0.299199 0.412499 -0.205481 0.090361 0.178344 -0.157835 0.196031 0.393432 0.134123 -0.338447 0.088704 0.269962 0.291133 -0.087208 -0.116306 0.533309 -0.127880 0.022176 -0.158547 -0.381539 -0.322037 0.063612 -0.243317 -0.192797 0.022411 0.093485 0.044925 -0.007390 0.093008 0.245895 0.178305 0.000515 -0.490593 0.002077 0.273966 0.259244 0.092363 -0.144064 -0.045048 0.515108 -0.145865 0.220176 0.034330 0.081981 0.269428 0.420870 0.351814 0.382038 -0.096666 0.030705 -0.101707 -0.379021 0.317085 -0.119030 -0.205573 0.106902 0.361150 -0.125206 0.158640 -0.178176 -0.083384 -0.055158 0.515698 -0.182725 0.083201 -0.088292 -0.012158 -0.492897 -0.153228 0.007475 -0.013369 0.096853 0.130692 -0.140164 0.002543 0.148955 -0.086250 0.141109 -0.543472 -0.140762 -0.242833 0.003480 0.031372 -0.062311 -0.280169 -0.347448 0.284209 -0.339559 0.038674 0.350440 -0.560117 0.032295 0.223420 0.017823 0.426222 -0.295837 -0.346870 -0.133860 -0.039278 -0.201606 -0.310303 -0.239932 -0.097748 -0.340951 0.419696 -0.637209 0.151506 0.186248 -0.049311 -0.021711 -0.020252 0.404941 0.056688 0.358188 -0.230200 -0.059460 -0.068652 0.084464 -0.186499 -0.162667 0.132262 0.397136 -0.056286 0.049255 0.005075 0.436865 0.558223 0.141893 0.234526 -0.126487 0.099458 0.363068 0.079674 -0.180911 0.072771 0.149702 -0.116244 0.275777 -0.142399 -0.019875 -0.446402 0.151115 0.001731 0.244138 -0.033817 -0.119820 0.243186 -0.215097 0.029842 0.022975 0.129641 0.160866 -0.199447 0.127502 -0.442042 -0.529423 0.059916 0.254648 -0.406224 -0.228594 0.224223 0.184139 -0.003163 0.005583 -0.258411 0.228328 -0.367741 -0.391982 0.124320 0.199157 -0.355651 -0.288404 -0.093073 -0.111460 0.464739 -0.158235 -0.325874 0.138427 0.075489 0.001276 0.243334 0.345732 -0.407343 0.165865 -0.518152 -0.171253 0.096492 -0.087890 0.127601 -0.227231 -0.217595 0.008597 
bn:00483985n 0.254600 0.130543 0.360108 0.166738 0.112009 0.055710 -0.024771 0.232756 -0.058800 0.494300 -0.188599 0.316939 -0.444525 0.113478 -0.047693 -0.272877 -0.078915 0.103632 0.050836 0.215902 0.013529 0.133780 0.445238 0.014389 -0.011317 -0.390213 0.075619 0.353719 0.159850 -0.210364 0.383054 -0.123148 -0.340826 -0.069055 -0.086469 -0.465664 -0.019423 -0.300339 -0.032634 0.063386 -0.116410 -0.151275 -0.049724 0.161063 -0.264712 0.521279 -0.297118 0.157863 -0.044360 0.105808 0.450688 0.323040 -0.169809 0.443380 -0.145194 0.050979 -0.033379 0.102433 0.399779 0.270687 0.109579 -0.151075 0.019469 -0.313489 -0.250768 -0.371471 -0.154176 0.354327 -0.138095 0.092639 -0.269460 0.404971 -0.115554 0.137807 -0.061364 -0.137388 -0.128047 -0.081923 -0.247494 -0.066423 0.031604 -0.415454 -0.161847 -0.271358 0.078112 0.156373 -0.329420 -0.125913 -0.328189 0.058520 0.248018 -0.094125 0.388666 -0.328357 0.422087 -0.043084 -0.079620 -0.023856 -0.122953 0.397908 -0.086137 0.086406 -0.397746 0.040766 0.025786 0.321634 0.219009 0.059428 0.033302 0.525197 -0.095032 0.018889 0.376489 -0.071486 0.074978 -0.004185 0.046336 -0.016353 -0.091642 0.169045 -0.288259 0.315108 -0.200273 0.022476 0.080795 -0.112877 -0.515018 -0.097075 0.132331 -0.297450 0.023526 -0.036126 0.242580 -0.289998 0.018766 -0.454189 0.527914 -0.021260 -0.036669 0.055472 -0.707773 -0.347610 -0.136824 -0.065437 0.113874 -0.230790 -0.279217 0.443304 -0.208020 0.171196 -0.134544 -0.166300 0.038437 0.111257 0.159508 0.432088 0.075772 0.286658 -0.185089 -0.278685 -0.026750 -0.095952 0.180038 0.032348 0.385602 -0.188515 -0.223732 -0.230257 -0.325802 0.249731 -0.047953 -0.094035 0.174853 0.369893 -0.040043 -0.709910 0.224950 -0.090795 -0.298380 -0.078944 -0.258013 0.221666 -0.076445 -0.113875 -0.079949 0.064250 -0.208375 -0.179180 -0.342734 -0.260997 -0.184048 -0.194581 0.637741 -0.193043 -0.151639 0.052891 0.160079 0.122741 -0.531786 0.100782 -0.176665 0.187223 -0.179766 0.055799 0.340022 -0.420964 -0.126528 0.121362 -0.323842 0.406538 -0.150099 -0.296681 0.114687 0.031489 0.029332 0.004434 0.218929 -0.025805 0.300961 0.571773 -0.354478 0.196436 -0.349067 0.099003 0.013618 0.128809 0.192011 0.070024 -0.039390 -0.204654 -0.131229 0.429626 0.386728 -0.273967 0.181308 -0.269148 0.364781 0.540802 -0.048632 0.105499 -0.041879 -0.366139 -0.234282 0.063743 0.166551 0.054241 -0.258223 -0.472830 0.060714 0.061323 -0.180980 0.210974 -0.253293 0.079633 0.044133 0.356489 -0.095646 -0.138433 0.012740 0.069904 0.192205 0.170236 0.199113 -0.576885 -0.093515 -0.223117 0.034809 0.193280 0.092045 0.209524 0.312988 -0.014025 0.015880 0.256945 0.135313 0.302873 0.180270 -0.150727 -0.157525 -0.141008 -0.074043 0.171323 -0.230388 0.341900 0.022523 -0.165466 0.311981 -0.243127 -0.089462 0.270174 0.210819 0.062115 -0.223297 -0.346796 -0.262076 -0.110799 0.334194 -0.096270 0.004127 0.120697 
bn:03355076n 0.129214 0.481510 0.066950 0.048554 0.108918 -0.119045 -0.243743 -0.713428 0.623160 0.098752 0.200972 -0.001504 -0.331438 -0.011824 0.223222 -0.012681 -0.546224 0.176705 -0.163624 0.494597 0.423502 -0.421325 -0.175826 -0.439809 -0.265943 0.366486 -0.275467 0.666162 -0.155087 0.037804 0.183048 0.410394 -0.144974 -0.245878 0.297462 -0.189530 0.282941 0.229398 0.082097 -0.113368 0.046575 0.085966 0.015737 -0.060856 -0.208672 -0.159121 0.183557 -0.009910 -0.237066 0.212707 -0.310831 0.036592 -0.527392 -0.047851 0.017943 -0.162965 0.407500 0.047883 0.302846 0.043573 -0.428188 -0.110281 0.421624 -0.186185 0.068347 -0.299612 0.497937 -0.069518 -0.358732 0.295368 -0.146209 0.206999 0.098676 -0.197606 -0.561213 0.245896 -0.260820 0.192652 0.389769 0.045861 0.124467 0.104851 -0.554317 -0.375458 -0.103760 -0.164912 0.263070 -0.359437 0.109588 -0.275917 0.454766 -0.522609 0.100099 -0.141380 0.566634 0.201530 0.214237 -0.621803 -0.022254 -0.038865 0.317325 0.261135 0.083427 0.083353 0.032230 -0.401185 0.061818 0.586480 -0.271680 0.479471 0.155735 0.089411 -0.292898 -0.067344 -0.022777 -0.259178 0.458442 -0.492271 -0.230903 0.238477 0.184458 0.158364 -0.514820 0.527993 0.387210 -0.001641 0.097007 0.302749 0.007925 -0.667464 -0.122901 -0.287240 -0.604735 -0.129482 0.169094 0.003231 -0.016965 0.129476 0.334639 -0.238756 0.556487 -0.617541 0.186280 0.075604 -0.017486 0.433552 0.004654 0.855039 -0.217768 0.291099 0.302942 0.172694 0.304197 0.013040 0.118370 -0.035067 -0.027402 0.139712 -0.713778 -0.172069 -0.029121 -0.654461 -0.178131 0.364109 0.302082 0.414854 0.526387 0.164297 0.078375 0.285833 0.217403 -0.529763 0.096010 0.352019 -0.100648 -0.105330 -0.243672 -0.309863 -0.092940 0.444612 0.368976 -0.117017 0.192894 -0.333849 0.483877 -0.106399 0.628215 -0.092953 0.155275 0.095531 -0.270786 -0.295230 0.025355 0.350752 -0.505291 -0.197528 0.658966 -0.244817 -0.157429 0.172601 0.294482 -0.233452 0.002308 -0.069642 0.121448 0.349842 0.002669 0.125745 -0.198713 0.113930 0.511076 -0.324562 -0.191673 0.338860 0.319878 -0.321109 -0.097293 -0.124519 -0.129202 -0.146968 -0.019134 -1.084670 0.090389 -0.123409 -0.277331 -0.347789 -0.030816 0.331014 0.118442 -0.088826 -0.103625 0.474280 -0.222168 -0.351010 -0.349833 -0.253714 -0.375930 0.009796 -0.007625 0.050989 0.111420 -0.219934 -0.113788 0.154347 -0.464480 0.012545 -0.148306 -0.123092 0.176273 -0.155811 0.403026 -0.094940 -0.326710 -0.207017 0.013294 -0.247477 0.556538 0.195005 0.129755 -0.125058 0.395300 0.102053 -0.041282 -0.108897 -0.547338 -0.058288 -0.359749 0.021290 0.550009 0.270727 -0.010326 0.628814 -0.018932 -0.048036 -0.078705 0.394975 -0.041493 0.055894 0.266710 0.287045 -0.125083 -0.008609 -0.058959 0.062752 0.017480 0.041044 -0.401264 -0.271429 -0.246613 0.034349 -0.075041 0.230203 0.157114 0.038393 0.576298 0.386160 0.138246 -0.402918 0.380342 0.624167 
bn:03557802n 0.498429 0.170155 0.491833 -0.032204 -0.060938 0.539420 -0.511431 0.002173 -0.123240 -0.085271 0.003912 0.290463 0.036831 -0.394804 0.119851 -0.416757 0.309209 0.248993 0.105047 -0.059928 -0.001055 0.000153 -0.064696 0.269372 0.073824 0.127372 0.411310 0.359790 -0.084818 0.420314 0.017563 -0.507882 -0.135114 -0.198771 0.244578 -0.559714 -0.355613 -0.199609 0.189365 0.058058 -0.252858 -0.311777 -0.175864 0.514460 -0.081963 0.178569 -0.020553 0.074194 -0.245808 0.064875 -0.663051 0.371607 -0.126953 0.137163 0.173049 0.148335 -0.054463 -0.070086 0.382421 -0.099203 0.381481 0.090050 -0.215018 0.151598 0.653218 -0.008761 0.360985 0.159624 0.088980 -0.281417 -0.153516 0.152981 -0.210875 -0.076918 0.252647 0.043423 0.114533 0.006247 -0.436249 0.275778 -0.026904 -0.674793 -0.641056 -0.155017 0.368558 0.082653 0.026629 0.391359 -0.619473 0.388858 0.342917 -0.268028 0.278924 -0.184795 0.196415 0.032409 0.472958 0.117486 0.374470 0.556521 0.031417 -0.103363 -0.109762 0.081011 0.251656 0.416537 0.318750 0.126863 0.753470 0.446090 -0.043752 -0.025658 0.291427 -0.192841 0.117381 0.077942 0.010515 -0.569946 -0.072595 0.077151 -0.325940 0.071993 -0.463171 0.030895 0.145635 -0.012759 -0.378608 0.238209 -0.156596 -0.381440 -0.072800 -0.082061 0.126130 -0.177766 -0.148999 -0.392635 0.388100 -0.162483 0.574103 -0.164250 -0.202494 -0.173058 -0.088580 -0.162138 0.123970 -0.001619 0.181591 0.256652 -0.013642 0.037709 0.077701 0.141671 0.369973 -0.014962 0.233698 0.421524 0.258895 0.348593 -0.429157 -0.259927 0.135413 -0.168115 0.267376 0.184153 0.160937 0.349201 -0.223246 -0.220782 -0.334131 0.164879 -0.077392 0.160433 0.430281 0.790669 -0.105793 -0.554405 -0.164428 0.166954 0.072036 0.138639 -0.190731 -0.443806 0.153022 0.151168 -0.054097 0.173458 -0.351806 0.007710 -0.092509 -0.095690 0.066383 -0.099661 0.512803 0.121548 -0.413673 0.274245 -0.328932 0.552067 -0.445397 0.132398 0.049069 0.242121 -0.126190 -0.202330 0.229033 -0.579309 -0.388850 -0.393250 -0.652648 0.168370 -0.506454 -0.576095 -0.019805 -0.375278 -0.279250 0.060634 0.115307 -0.159130 -0.056975 0.587611 0.042975 0.326386 0.131357 0.124714 0.138483 0.302696 -0.342715 -0.385232 0.139540 0.244965 0.100259 0.037955 0.169259 -0.166424 -0.290883 -0.022287 0.291966 0.129274 0.330141 0.051345 0.173860 -0.010482 -0.056256 0.099930 -0.369265 -0.136334 -0.610560 -0.473759 -0.258827 0.033993 -0.178601 0.227801 -0.036332 -0.186700 -0.219075 -0.136565 -0.119422 0.071202 -0.067363 0.053426 -0.282752 0.227409 -0.489341 -0.440968 -0.008968 0.050327 0.108982 0.108034 -0.262865 0.088477 -0.189951 -0.014208 0.189193 0.438728 0.238432 -0.016302 0.048107 -0.038949 0.154043 0.038681 0.158935 0.130808 0.866536 0.500736 -0.282182 0.641536 0.304838 -0.302177 -0.427817 0.121188 0.091837 -0.047557 -0.160089 0.011535 0.146922 0.042560 -0.157045 0.133406 0.116442 0.094669 
bn:00001426n -0.056726 -0.254846 -0.006473 0.077400 -0.337382 0.686896 -0.187567 -0.581277 0.736612 0.426820 -0.338233 0.144525 -0.444513 0.350483 0.226792 0.378405 -0.064337 0.273676 0.260806 0.068919 -0.061144 0.008415 -0.718103 -0.288721 -0.577759 0.250133 -0.074782 0.183787 0.419238 0.519618 0.127949 -0.547830 0.077430 0.083545 -0.000970 -0.062124 0.426161 -0.060506 -0.167480 0.372400 -0.591127 0.306125 0.076509 0.344215 -0.525368 0.351810 0.221337 -0.249751 0.035366 -0.366399 -0.169490 -0.028725 -0.232422 -0.338619 0.106503 0.131748 0.155288 0.235627 0.401971 -0.121956 -0.539936 0.169234 -0.061256 0.566711 -0.101425 -0.123286 0.247595 0.093506 -0.029612 0.328908 0.546679 0.459441 -0.270897 0.012216 -0.618956 0.135299 -0.353976 -0.227405 0.332630 -0.500999 -0.516211 -0.173970 -0.685767 0.041580 0.058757 0.147340 -0.031512 -0.070138 -0.305963 -0.130924 -0.340682 -0.387443 -0.402258 -0.025143 -0.087433 0.123326 0.385399 -0.531504 0.129809 0.199914 -0.285968 -0.187747 -0.051877 -0.135508 0.037441 -0.241959 0.391899 0.218732 -0.289452 -0.022266 0.048839 0.194396 -0.215967 -0.011698 0.179245 -0.652262 0.167869 -0.081712 0.523648 -0.230153 0.561351 0.505165 0.196712 -0.232396 0.261276 -0.642193 0.382229 0.092383 0.058395 -0.357184 -0.138996 -0.423304 -0.330225 -0.096636 0.039281 -0.151649 -0.229751 -0.700485 0.396007 -0.378418 -0.213581 -0.850971 -0.167171 0.136652 -0.193837 0.341266 0.120035 0.387610 0.094310 0.059481 0.353211 0.073985 0.079902 0.111329 -0.014652 0.286674 0.479780 0.215246 0.164936 0.440937 -0.387604 0.048816 -0.395767 0.486570 0.053828 -0.399892 -0.150174 -0.177819 0.174848 -0.219716 -0.028764 -0.069818 0.004956 0.168945 -0.401608 -0.061488 -0.672669 0.099134 -0.432776 0.381954 0.512799 -0.177689 -0.846524 0.279763 -0.310080 -0.649605 0.427780 0.192412 -0.082850 0.277253 0.279271 -0.143172 -0.205018 -0.198687 0.038908 0.147685 0.194902 -0.188277 0.136764 0.221265 -0.216778 0.215287 0.291889 -0.270696 0.421122 0.299850 -0.122043 0.314585 -0.134219 -0.495292 0.388791 -0.084485 -0.288768 -0.186957 0.422619 0.103819 -0.172707 -0.177159 0.407968 -0.211061 0.468525 -0.589073 -0.232339 -0.384750 -0.422883 0.119158 0.096442 -0.072004 0.287875 -0.336900 0.725651 0.728567 0.476392 -0.057256 -0.006894 -0.276874 -0.129688 0.095226 -0.094617 0.360282 -0.222439 -0.966210 -0.039054 -0.249468 -0.792541 0.498125 -0.220249 -0.320900 0.823937 -0.385133 0.139853 -0.283578 -0.126329 0.145349 0.055306 -0.339502 0.118685 -0.267529 0.050938 -0.538692 0.540515 0.390393 0.040675 -0.116210 0.359174 0.419857 -0.277745 -0.171685 0.380464 -0.191057 -0.251464 0.080821 0.023174 0.402939 0.014243 -0.084014 0.105815 -0.512751 -0.305056 0.657353 -0.133396 -0.412699 -0.100696 -0.112106 -0.010327 0.014813 -0.159172 -0.103285 -0.365825 -0.275667 -0.150707 0.287098 -0.190447 0.395820 -0.181976 0.331829 0.457322 -0.296947 -0.236566 -0.105985 
bn:01589740n 0.374828 0.088150 -0.349275 -0.135635 -0.405658 -0.257545 -0.272956 0.336073 -0.014964 0.333959 -0.143355 -0.011120 -0.127407 0.003253 -0.026947 0.110715 0.060818 0.133319 -0.438481 0.163993 -0.084121 0.361686 0.048713 -0.011106 -0.253246 -0.071473 -0.056457 0.444316 -0.137040 0.088086 -0.287795 -0.048804 -0.261411 -0.260718 0.267069 -0.295238 -0.169112 -0.146970 0.214328 -0.071479 -0.183718 -0.035920 0.234452 -0.512561 0.166830 -0.128287 -0.020875 0.186309 0.060843 0.109377 -0.096429 0.401425 0.306479 0.079997 -0.196540 0.161807 0.175322 0.024268 0.089151 -0.066480 0.174590 -0.133419 -0.020411 0.152680 -0.206299 -0.202717 -0.074731 -0.149857 -0.265581 -0.030553 0.067394 0.459885 -0.294989 0.031301 0.089981 0.224186 -0.147622 -0.014458 0.088735 0.015284 0.174193 0.464670 -0.143985 -0.129530 -0.263994 -0.194084 -0.034976 0.062878 -0.014260 0.290911 -0.289590 -0.599362 0.413217 -0.598152 0.503847 0.235290 -0.276911 0.222827 0.209547 -0.080281 -0.255302 -0.351853 -0.172782 0.007008 -0.437543 0.595061 -0.116895 -0.062478 0.049812 0.188136 -0.182865 -0.123762 -0.239723 -0.175052 0.002452 -0.149146 0.228161 0.094068 -0.432434 0.042821 -0.058828 0.080855 -0.666885 0.236529 -0.249420 0.003872 -0.300805 0.167938 0.028621 -0.218078 -0.288209 -0.533858 0.307893 -0.093450 -0.163465 0.216176 0.111376 0.143429 -0.139314 0.019872 -0.594963 -0.181553 -0.270284 0.145920 0.296437 0.013049 -0.097649 0.134196 0.049021 0.206630 0.148465 -0.157164 -0.007155 -0.098329 -0.291812 0.287015 -0.041241 -0.219512 0.010208 -0.081640 -0.097511 -0.215929 -0.161396 0.155008 0.329626 -0.001195 0.022494 -0.029889 -0.293880 0.084680 -0.089085 -0.235655 0.113219 0.144293 -0.123771 -0.169586 -0.023863 -0.053004 0.196950 0.041712 0.382332 -0.215790 0.393966 -0.155770 0.278351 -0.003258 -0.328465 -0.268557 0.065170 -0.273642 0.474206 -0.240132 0.267696 0.285096 0.189219 -0.361690 0.041791 0.228992 -0.195048 0.415377 0.029631 0.390298 0.069143 0.275070 -0.010820 -0.443759 0.266940 0.265683 -0.463775 0.282977 0.202439 -0.114774 -0.191440 0.031245 -0.067210 -0.358024 0.108352 -0.103802 0.194193 0.134245 0.023890 0.287813 -0.123193 -0.167936 0.084361 0.094934 0.572795 -0.018634 0.076869 0.275280 -0.229666 0.147954 0.142250 0.065941 0.038143 -0.130051 -0.083466 -0.056551 0.066910 0.162523 -0.129887 -0.100769 0.360002 0.240038 0.274192 0.023089 -0.257471 -0.096088 -0.250432 -0.052938 0.069813 0.306382 -0.038375 0.235995 0.093178 0.489530 -0.142975 -0.134847 0.319541 -0.402268 0.165117 0.320383 -0.088940 0.021234 0.463549 0.152467 0.068246 0.259917 0.261124 0.113140 -0.028597 -0.187166 0.060654 -0.075847 0.150087 0.047417 0.521681 0.284294 0.034343 -0.150600 0.095062 -0.432633 0.106412 0.121581 -0.196536 -0.086703 0.261459 -0.125911 -0.014498 0.159153 0.109687 -0.006275 -0.203137 0.197208 0.386009 -0.082567 0.208288 0.011114 0.090108 -0.191943 
bn:00007299n 0.110207 -0.269155 -0.314013 0.104476 -0.331232 -0.007189 -0.387881 0.002596 0.566259 -0.160019 0.239407 0.072694 -0.691154 0.198769 0.140946 0.452203 -0.275263 0.558154 -0.177147 -0.216382 0.029619 0.007465 -0.616984 -0.030232 -0.504923 0.455605 -0.097548 0.134843 0.186971 0.121540 -0.156428 0.038434 -0.164843 -0.124672 0.063020 -0.033224 0.501085 0.092852 0.245272 0.255273 -0.147351 0.177673 -0.118610 -0.082650 -0.402196 0.197550 -0.091511 0.267953 -0.070194 0.134906 -0.269685 0.380135 -0.273076 -0.069261 -0.049864 -0.352942 0.160305 0.315560 0.494287 0.080849 -0.228832 -0.202517 -0.085041 0.165330 0.287529 -0.037184 0.337465 0.320145 -0.475860 0.112232 0.271069 0.144917 -0.377761 -0.276345 -0.611151 0.218159 -0.341314 -0.306043 0.457018 -0.233531 -0.261472 -0.028899 -0.425268 -0.124951 -0.147864 -0.074817 0.240664 0.068852 0.092263 -0.326976 -0.457694 -0.511268 0.057161 -0.267933 0.255359 -0.239969 0.113477 -0.510241 0.205878 0.129764 -0.142029 -0.053821 -0.059377 -0.254582 -0.344534 -0.327973 0.422853 0.482387 -0.031586 0.238741 -0.287426 0.102567 -0.257618 -0.095282 -0.134642 -0.246977 0.000068 0.197135 0.265459 0.044072 0.337355 0.015750 -0.171511 -0.254414 0.270562 -0.282329 0.454342 0.235239 -0.175315 -0.206896 -0.483397 -0.295738 0.186960 0.238298 -0.105421 0.142766 0.273123 -0.244486 0.402044 0.121325 -0.055526 -0.436829 0.265122 -0.218289 0.101468 0.138933 0.086727 0.425596 -0.042073 0.007797 0.101781 0.586753 0.369037 0.073337 0.028713 0.268687 0.054586 0.162301 -0.109138 0.307665 -0.137144 -0.215166 -0.516817 0.679413 0.083400 -0.271625 0.085465 -0.029492 -0.146954 -0.022435 -0.045506 -0.266590 -0.416309 0.382134 -0.123540 -0.478120 -0.594686 -0.001018 -0.208761 0.015010 0.297329 -0.107543 -0.578015 0.022494 0.243421 -0.404415 0.240511 -0.038972 -0.245290 0.234033 0.008313 -0.247336 -0.329793 0.303757 -0.254811 -0.368537 0.496679 -0.308782 0.002807 0.094345 -0.028080 -0.038482 0.263828 -0.564655 0.445233 0.521401 -0.144264 0.537220 -0.139856 -0.386062 0.295025 0.150022 0.133161 0.092839 0.408730 -0.117937 -0.386346 -0.129276 0.391155 0.010040 0.301083 -0.694085 -0.018840 -0.462402 -0.261286 -0.045342 -0.033317 -0.027072 0.125861 -0.198491 0.136985 0.328635 -0.247403 -0.223431 0.009353 -0.208496 -0.549673 0.095501 0.125862 0.104608 0.064065 -0.580176 0.185864 0.044662 -0.490554 0.175607 0.260629 0.140959 0.007743 -0.095300 0.493125 -0.234882 0.095783 -0.316475 0.123991 -0.239617 0.171586 -0.128517 -0.231570 -0.332922 0.454251 0.472257 -0.094407 -0.152213 0.348607 0.106846 -0.230509 -0.268630 0.020403 -0.300897 -0.114736 0.447197 -0.117359 0.367198 0.087869 -0.137094 -0.126568 -0.113467 0.029680 0.158387 -0.048095 -0.302043 -0.086600 -0.159168 -0.186354 -0.139781 -0.021168 0.001058 -0.482130 -0.081482 -0.280091 0.449207 -0.089569 0.129825 0.093864 0.264216 0.194194 -0.267121 0.005466 0.046349 
bn:03152211n 0.297020 0.216316 0.005179 0.056567 0.279413 -0.107740 -0.112965 0.138525 -0.066835 -0.092297 -0.088236 0.228296 0.129969 -0.179293 -0.083635 -0.648320 -0.006316 0.148065 -0.124421 -0.093806 0.262539 -0.185029 -0.297576 0.017022 -0.109260 0.120782 0.329947 0.251403 0.147223 0.037839 -0.062726 -0.272269 -0.322003 -0.271411 0.025684 -0.369060 -0.256193 0.286930 0.330597 0.160041 -0.475690 -0.117621 -0.044366 0.558332 0.247664 -0.340931 -0.196043 0.341746 0.091732 0.288037 -0.307866 0.421862 0.180589 0.226558 0.049901 0.069007 0.198039 -0.227346 0.410596 0.029441 0.196778 -0.090309 0.134565 -0.214081 0.245989 -0.046836 0.064919 0.080927 -0.191883 0.016905 0.131585 0.203294 -0.064106 -0.108062 0.130692 0.049295 -0.203332 0.157469 0.074637 0.117401 0.410366 0.066186 -0.001691 -0.157680 -0.160269 0.152987 0.102352 -0.123029 -0.410386 0.264960 0.108199 0.062593 0.230212 -0.044411 0.344481 0.173199 0.289866 0.073539 0.041194 0.495720 -0.148370 -0.186909 0.108400 -0.081016 0.040211 0.028831 -0.184278 -0.295505 -0.253456 0.204792 -0.205629 -0.154969 0.195307 -0.478014 0.309326 0.219101 0.015033 -0.321873 0.156494 0.166562 0.100501 -0.010425 -0.085392 0.098101 0.116822 0.009312 -0.240770 -0.342595 -0.179599 -0.131913 -0.080107 -0.088202 0.124022 -0.175377 0.055279 -0.163688 -0.043362 -0.056628 0.183378 -0.139313 -0.087353 -0.200418 -0.344950 -0.111616 -0.272367 0.042041 -0.074514 0.494059 -0.173407 0.170651 0.020402 0.062076 0.084698 0.142545 0.247993 0.247780 -0.096258 -0.047662 -0.069621 -0.430099 0.250141 -0.082484 0.492733 0.069957 0.327571 0.250811 -0.050135 -0.003881 -0.083773 -0.111722 0.247654 -0.149701 0.132795 0.201570 -0.001157 -0.319495 -0.403278 -0.320946 0.386988 -0.076143 0.059624 -0.257954 -0.025701 0.016964 0.260061 -0.195889 -0.547894 0.150522 0.090733 -0.254481 0.061435 -0.119223 0.250607 -0.316053 -0.001385 0.139570 0.015213 0.422629 -0.154226 0.052162 0.290134 -0.059262 0.198948 -0.139539 -0.066144 -0.479181 0.035609 -0.005322 -0.536182 -0.339931 -0.182495 0.073099 0.632959 -0.203354 0.083945 0.059793 -0.064304 0.057328 0.035120 0.049818 -0.021459 0.108279 -0.088071 0.012646 -0.075520 0.109225 -0.209112 -0.053076 0.112674 0.057303 0.343544 -0.143241 0.207217 0.231608 -0.015016 0.313937 0.117187 -0.440557 -0.144410 0.201074 0.033141 -0.131359 0.145591 0.132905 -0.286918 -0.113289 -0.052529 -0.028457 -0.526738 -0.117744 -0.503989 -0.016705 0.007542 -0.311310 0.436459 -0.308528 0.057863 0.240077 0.159149 -0.001977 -0.254160 0.554308 -0.523202 -0.543633 0.129291 0.119125 0.232936 0.236190 0.070430 0.142154 -0.031207 0.038472 0.020491 0.177232 -0.102085 0.054205 0.028831 0.316095 0.063514 0.014626 0.141124 0.025566 0.432967 -0.160107 -0.250857 0.440317 0.354373 0.028967 -0.067019 -0.049204 -0.258251 -0.180383 -0.423723 0.114780 -0.209217 0.281010 -0.083108 -0.281488 0.009330 0.176554 
bn:03804554n 0.523842 0.106449 -0.297050 0.103329 -0.237879 -0.350366 -0.913988 -0.187653 0.576987 0.263217 0.652071 -0.183589 0.216943 0.242479 0.052771 -0.205047 -0.128822 -0.136830 -0.024971 -0.139632 0.177282 -0.148857 -0.389381 -0.076424 -0.240128 0.531849 -0.456094 0.254070 -0.031929 0.669862 0.546239 0.169181 -0.221354 -0.114761 0.202334 -0.287842 0.020357 0.129712 0.846032 0.297315 0.040612 -0.022038 -0.047605 0.103815 -0.029210 0.086099 0.250681 -0.035524 -0.347225 0.345190 0.041805 0.611742 -0.388823 0.238104 0.424385 0.232121 0.197187 0.204662 -0.092703 -0.166116 0.561286 -0.502745 0.226471 -0.055816 0.665406 0.212854 0.611176 0.197429 -0.526487 -0.130358 -0.132539 -0.199299 -0.246378 -0.299533 0.073234 0.535442 -0.194501 -0.007305 0.756744 -0.161529 -0.309784 -0.288895 0.166193 0.616870 0.002089 -0.396094 0.165131 -0.448846 0.054447 -0.315214 -0.261388 -0.253357 0.080751 -0.428461 0.301116 0.227496 -0.113978 -0.112828 0.338509 -0.200356 -0.010842 -0.057831 0.171618 -0.355377 -0.960965 -0.073331 0.305114 -0.137197 -0.253930 0.701099 -0.245039 -0.571669 -0.003453 0.159706 0.215097 -0.112157 -0.118641 -0.216813 0.489489 0.372204 -0.407617 -0.158873 -0.613347 -0.020204 -0.626523 -0.324201 0.039990 0.184703 -0.702543 -0.065324 0.191662 -0.165511 -0.224212 0.453128 -0.147951 0.088409 0.043424 -0.215678 0.706152 -0.164129 0.126100 0.144956 0.414074 0.199068 -0.036219 -0.212493 -0.427184 0.173142 -0.145523 0.128258 -0.103715 -0.034478 0.393329 -0.206569 -0.255541 0.208834 -0.273600 -0.106165 0.247127 -0.167198 0.118425 0.203914 0.136928 0.139772 -0.511550 0.549461 0.281821 -0.111719 -0.155522 -0.049845 0.394946 0.024701 -0.314946 -0.170975 -0.601971 -0.564518 -0.136623 -0.146630 0.276766 -0.229960 0.027389 -0.341016 -0.026203 -0.154951 0.349824 -0.016253 0.208618 -0.095297 0.086605 0.267832 -0.149376 -0.391050 -0.227925 -0.012510 0.266801 -0.426408 0.436448 0.120375 0.273928 0.278713 0.036238 -0.600069 0.344924 -0.466079 0.079231 0.344003 0.099866 0.139711 -0.100790 -0.383585 -0.091553 0.039250 -0.108441 -0.307700 0.072286 -0.301252 -0.246897 0.163460 -0.133723 -0.029660 0.589005 -0.194144 0.370571 -0.350051 -0.006973 0.066233 -0.859644 0.149218 -0.198397 0.199953 -0.315643 0.440608 -0.131518 0.080164 -0.015318 -0.115584 -0.068197 -0.052415 0.471766 -0.098401 0.147096 -0.012308 0.108124 -0.198046 0.128887 -0.169775 0.153820 -0.229251 0.052622 0.040698 -0.256913 0.024250 -0.247697 0.110535 0.079577 -0.370803 0.375441 0.783096 0.429007 0.297140 0.234005 0.688037 -0.353776 -0.143730 0.761398 -0.297291 0.091392 0.051000 0.795493 0.117853 0.000321 0.132812 0.283661 0.016275 0.014871 -0.149204 0.087645 0.327874 0.163076 -0.248013 0.074795 -0.056864 0.164238 0.329114 -0.081279 0.479328 0.329758 -0.250289 0.293076 0.160091 -0.102118 -0.423674 -0.146525 0.649843 0.420395 -0.536623 -0.053833 -0.519264 0.214959 -0.019796 
bn:02968723n 0.420555 -0.014716 0.201852 0.060216 -0.165979 0.044745 -0.629575 -0.215575 0.070860 0.105646 -0.350545 0.119116 -0.647988 -0.045797 0.231562 -0.499087 0.058568 0.009527 -0.208725 0.215826 0.111032 0.075069 -0.175365 -0.058215 0.248527 0.289058 -0.274871 0.248923 -0.075063 -0.338814 -0.022919 0.365939 0.025638 -0.361981 0.198630 -0.060788 -0.307697 -0.100111 -0.033628 0.136057 0.035386 0.066638 0.597983 -0.118086 0.020323 -0.009412 0.047083 0.175599 0.102977 0.062657 -0.426479 -0.231337 0.099983 0.421328 0.141915 0.037548 0.249896 0.341041 0.261098 -0.025898 0.019733 -0.260473 0.180507 0.011423 0.300430 -0.372409 0.279220 0.054897 -0.330877 -0.176924 0.041180 -0.126529 0.162643 -0.220871 -0.325613 -0.004730 -0.145840 -0.459279 0.403885 0.033744 -0.154971 -0.072778 -0.347144 0.185989 0.186639 0.368511 -0.049126 0.055726 -0.615748 -0.275385 0.108934 -0.033321 0.316892 -0.314521 0.274451 0.016988 0.527146 0.022651 -0.225447 0.176276 0.510255 -0.369007 -0.429114 -0.085627 -0.202072 -0.162685 -0.133803 -0.330334 0.216659 0.143544 -0.167663 -0.067946 0.062514 -0.383122 -0.123166 0.452465 0.064901 0.109922 0.045887 -0.167874 -0.191579 -0.372978 -0.166231 0.173821 -0.119898 0.389794 -0.046708 0.180381 0.246439 -0.411732 0.107414 -0.015436 0.236295 0.298629 0.149753 -0.122452 -0.059352 -0.338151 0.217985 -0.171805 0.222147 -0.135646 -0.306872 -0.013259 -0.078786 0.105348 0.022954 0.364523 -0.061409 0.246863 0.529419 -0.182196 0.421219 0.049408 -0.146979 0.194421 -0.130478 0.328580 -0.413231 -0.378222 0.197021 -0.253362 0.267444 0.134540 -0.325549 0.461546 0.525482 -0.377277 -0.258327 0.279073 0.023053 -0.153798 0.384847 0.069236 -0.084911 -0.539407 -0.432238 -0.153816 0.381298 -0.357564 0.022050 0.097883 0.391122 -0.186338 0.179287 -0.178239 0.098220 -0.374857 -0.228057 -0.019745 0.383545 -0.472306 0.178002 0.265307 -0.066574 -0.463060 0.105849 0.275581 -0.182262 0.560771 0.269727 0.262490 0.241319 0.043523 -0.223298 -0.166400 0.332996 0.044793 -0.344361 -0.186423 0.287008 -0.358279 0.431709 -0.002602 -0.169968 -0.154476 -0.030270 -0.035704 0.487777 0.342877 -0.304270 -0.302904 -0.357817 -0.100874 0.017034 0.176804 -0.187776 0.094510 0.223285 0.066755 -0.402321 -0.023272 -0.252793 0.249330 -0.309473 0.004098 -0.151866 0.209332 0.484931 0.433312 0.273704 -0.211195 -0.387030 0.387413 0.262607 0.241559 -0.066886 0.080966 -0.318337 0.022797 0.011171 -0.251886 0.467763 -0.093378 0.131328 0.178883 0.144902 0.163541 0.198944 0.008180 -0.803067 0.631596 -0.099148 -0.292056 -0.171975 0.346090 0.184155 0.165064 0.386340 0.035636 -0.161680 0.379108 0.169033 0.197018 0.294962 -0.128798 -0.013134 0.018812 -0.103914 -0.238849 -0.416217 -0.163571 0.007284 -0.096961 -0.123941 -0.139956 0.336535 -0.205068 -0.245521 0.072040 -0.221833 0.121083 -0.111034 0.762764 0.368263 0.325989 -0.470503 -0.480450 0.006952 0.373285 
bn:00014691n -0.046450 0.144922 0.461427 0.018486 0.021903 -0.142609 0.101333 0.325062 -0.209933 0.370414 -0.034520 -0.071215 -0.395234 0.032090 -0.048246 -0.136339 0.326106 0.193095 -0.126387 0.076013 -0.071822 0.279827 0.269474 0.187507 0.092953 -0.230088 0.508722 0.113950 0.437356 0.020137 0.350893 -0.486253 -0.338407 -0.377008 -0.200748 -0.365107 0.339633 -0.083430 -0.159761 0.174555 0.110877 0.127425 0.185592 0.241053 -0.217179 0.508822 -0.548890 0.698888 -0.261751 0.256449 0.373608 0.183149 -0.031901 0.362939 0.065694 -0.269228 -0.198546 0.431897 0.669543 0.230277 0.195023 -0.049305 0.039757 -0.380851 -0.062338 -0.429230 -0.041343 0.390232 -0.085481 0.044921 -0.376774 0.223086 -0.115014 -0.267360 -0.120609 -0.229518 0.152363 0.137280 -0.448164 0.036734 0.195376 -0.456799 -0.210965 -0.329327 0.233740 0.026141 -0.426747 0.161055 -0.388661 0.276472 0.283231 -0.135472 -0.047267 -0.610772 0.354096 -0.201941 -0.255714 -0.052089 -0.201707 0.240156 0.097300 0.040994 -0.345175 0.009680 0.092330 0.057219 0.021987 0.106199 0.183556 0.032555 0.299785 0.147818 0.438224 -0.001644 0.061481 -0.228743 0.097713 0.193433 -0.297091 -0.228008 -0.421132 -0.028738 -0.392472 -0.249361 0.171265 -0.122325 -0.361302 0.162000 0.241519 -0.119050 -0.118076 0.337445 0.130087 -0.426010 -0.103056 -0.678657 0.628533 0.056622 0.264105 0.249096 -0.282480 -0.165098 0.034962 0.225391 0.342514 0.053528 -0.572027 0.093700 0.506542 -0.119722 -0.157147 0.318979 -0.045283 -0.065192 -0.245535 0.505741 -0.248135 0.320828 0.149609 -0.215294 0.081622 -0.100770 -0.223549 -0.302798 0.089329 -0.094392 0.030949 -0.021275 -0.056807 0.247041 -0.387171 0.174029 0.141821 0.398263 0.265088 -0.548527 -0.083784 0.334296 0.012461 -0.220349 -0.035012 -0.059180 0.097697 0.190225 -0.219369 -0.167503 -0.222223 0.137544 -0.304898 -0.250667 -0.230937 -0.066658 0.669632 0.127775 -0.177971 0.448711 0.100140 0.395963 -0.590655 -0.227443 0.177081 0.107453 -0.200246 0.132918 0.301473 -0.133831 -0.435777 0.127259 -0.432679 0.367897 -0.052491 -0.481112 0.087008 0.120010 -0.305447 -0.395667 0.398982 0.252822 0.112456 0.611349 -0.377192 0.500055 0.013318 0.258422 -0.180529 0.290478 -0.127451 -0.223229 0.136357 -0.448870 0.097862 0.159139 0.402407 -0.251180 0.195107 -0.377618 0.084668 0.341770 -0.031246 0.178222 -0.386498 -0.233597 0.040862 0.035417 0.029380 -0.137104 -0.321369 -0.509977 0.002668 0.320828 0.105169 -0.153809 -0.087875 0.196625 0.178048 0.279627 0.110104 -0.121608 -0.127309 0.040132 -0.055260 -0.140098 0.107454 -0.495046 -0.086967 -0.380121 -0.010040 0.460184 0.165453 0.060463 0.277210 -0.270088 0.435695 0.244838 0.300765 0.217698 -0.279797 -0.162135 0.115444 -0.307808 -0.400597 0.473061 0.062511 0.003622 -0.259790 -0.156920 -0.194434 -0.219412 -0.508004 0.092793 0.027514 0.251019 -0.006559 -0.383574 -0.170405 -0.339019 -0.114448 -0.301698 -0.145325 0.235456 
bn:00056978n 0.264318 -0.448595 0.077019 0.264312 -0.661175 -0.320515 -0.621059 -0.029507 0.808552 0.153546 0.383965 -0.098425 -0.193008 0.148918 0.123864 0.074760 -0.304400 0.517431 0.131608 0.257198 -0.063248 -0.189364 -0.144312 -0.514147 -0.583759 0.398932 -0.380888 0.056679 0.194209 0.217378 0.458859 0.360166 -0.283099 -0.207260 0.082226 -0.172641 0.563359 -0.428425 0.458093 0.389274 -0.361404 0.330671 -0.395475 -0.275319 -0.092014 0.291638 -0.163005 -0.040287 0.301479 0.191603 -0.216923 -0.189909 -0.744335 -0.463758 0.640541 0.428977 0.148219 0.286905 0.094501 -0.224097 0.256632 0.002162 0.142567 -0.008880 -0.106949 0.546318 0.623229 -0.626181 -0.551269 0.578917 0.144514 0.192440 0.199310 -0.495725 -0.241266 0.457877 -0.821125 -0.371333 0.602032 0.025593 -0.103568 0.115510 -0.170488 0.143615 -0.219730 -0.693508 0.344918 0.259354 -0.043798 0.383782 -0.366880 0.018046 -0.097599 0.178660 0.321973 -0.178807 -0.175842 -0.223875 -0.090648 0.007447 -0.354086 0.144695 -0.167727 -0.423998 -0.298618 -0.612532 0.193407 0.171105 -0.462875 0.430559 -0.325061 0.224089 -0.152264 -0.245176 -0.219914 0.374688 0.063557 0.504563 0.466585 0.196297 0.010980 -0.426949 -0.435909 -0.084634 0.149015 -0.359881 0.196066 0.540809 -0.272627 -0.380115 0.084577 -0.195649 0.365712 -0.195970 -0.325752 0.002155 0.087597 -0.730501 0.899009 -0.366645 -0.209276 -0.022271 0.184051 -0.387894 -0.092354 0.268769 -0.466049 0.479255 -0.021597 0.266048 0.035233 0.372537 0.090201 0.151992 -0.197292 0.991423 0.276625 0.120748 -0.234711 0.067758 -0.093703 -0.105752 -0.199138 0.308863 -0.168072 -0.222401 0.546219 -0.083528 -0.125423 -0.019768 0.404966 -0.081135 -0.739978 0.410880 -0.385761 0.191900 -0.133535 -0.238523 -0.243228 0.074628 -0.162360 -0.516049 -0.234326 0.012651 0.399080 -0.203648 0.365425 -0.037114 0.260366 0.161280 0.011861 -0.058395 -0.325145 0.464901 0.175934 -0.406962 0.613353 0.080160 0.303806 -0.102102 -0.131719 -0.644160 0.494452 0.244068 0.695626 0.773561 0.174668 0.262188 -0.547769 0.304274 -0.226809 0.347212 -0.299925 0.031877 0.529151 -0.092210 -0.479731 0.462285 0.155210 -0.407713 0.554971 -0.080764 -0.537570 0.253423 -0.095675 0.374604 -0.153520 0.004240 -0.085241 -0.138021 0.378319 0.814736 -0.088269 -0.149625 -0.269425 -0.487136 0.097141 -0.175991 0.125735 0.282955 0.309547 -0.106895 0.293508 -0.652746 -0.018680 -0.288055 -0.209559 -0.121192 0.240812 -0.134083 0.068172 -0.242096 -0.216450 0.145326 0.226648 -0.356870 0.456278 0.123655 -0.141134 0.091789 0.440032 -0.007219 0.081533 -0.131068 0.299606 -0.208646 0.306316 -0.054610 0.466871 0.454833 -0.182562 -0.017895 -0.179865 -0.080477 0.742641 0.151385 -0.112219 0.025942 -0.134540 0.227004 -0.041775 -0.355093 -0.383159 0.301092 0.086699 0.148347 0.121772 0.221688 -0.425938 0.017381 0.300364 -0.043600 -0.341900 0.509186 0.211715 0.022749 0.283752 -1.061319 -0.357611 0.011967 
bn:01179063n 0.609328 0.424644 -0.270532 0.060623 -0.224714 -0.395879 -0.585990 -0.001067 0.706875 0.121811 -0.160742 -0.447152 -0.420799 0.227682 0.436350 -0.189201 0.251136 0.198513 0.055089 -0.025326 -0.017228 0.128203 -0.091183 -0.797213 -0.580204 0.252144 -0.213421 0.434974 -0.042179 0.231978 -0.021238 0.123143 0.034227 0.062916 0.359357 -0.184712 0.334273 -0.266607 0.557885 -0.376914 -0.314157 0.078930 0.453700 -0.155725 0.350372 -0.050290 0.086819 0.063688 -0.447841 -0.102006 -0.477677 0.229623 -0.269369 -0.403778 0.042176 -0.066904 0.352425 -0.055068 0.044694 0.730424 -0.199354 -0.391111 -0.041239 -0.197305 0.418313 -0.106265 -0.051642 0.010517 -0.251669 0.120182 -0.225462 -0.129457 -0.584892 -0.099411 -0.097892 0.363856 -0.312316 0.605179 0.512387 -0.142097 0.214718 -0.033635 -0.276628 0.000904 -0.069955 -0.652924 -0.103174 -0.085143 -0.073232 -0.286506 -0.055516 -0.371888 0.012736 0.046201 -0.111787 -0.039551 0.180172 -0.470574 -0.000692 0.227579 -0.118730 -0.051041 -0.130148 0.069868 -0.271300 -0.519069 0.166494 0.093391 0.016484 0.342105 -0.603954 0.192383 -0.051316 -0.536172 0.217166 -0.217758 -0.192163 0.515690 -0.531133 0.137082 -0.192417 0.136226 -0.452361 0.066185 0.075584 -0.269038 0.164305 -0.017528 -0.112847 0.118685 -0.212573 -0.146962 0.235227 0.310696 -0.162734 -0.101582 0.045683 -0.032256 0.394673 -0.131568 0.230709 -0.444138 0.309378 0.077069 0.109013 0.036810 0.086480 0.157051 -0.670576 0.330380 0.293629 0.095506 0.395774 -0.158057 -0.362788 0.311448 0.282422 0.096227 -0.059191 0.253319 -0.317965 -0.321025 -0.251069 -0.073735 0.030886 -0.011448 -0.156582 -0.173538 0.208716 0.244626 0.007638 -0.335791 0.073875 0.150292 -0.682028 -0.373342 -0.310525 -0.259023 -0.313507 -0.123531 -0.314345 -0.271564 0.103088 -0.126844 0.656016 -0.332048 0.490701 -0.109204 0.350381 -0.283688 0.189183 -0.277773 0.249367 0.046908 -0.232708 0.064584 0.368651 0.138908 -0.276619 0.401216 -0.086476 -0.264541 0.642747 -0.277948 0.141589 0.130479 0.047116 -0.055046 0.027438 -0.116149 0.541188 -0.322968 -0.104263 0.043669 -0.087772 0.323616 -0.068136 -0.002146 -0.043411 0.052310 0.033802 -0.274067 -0.019359 -0.499503 -0.233825 -0.218483 -0.112535 0.011496 -0.063504 -0.103804 -0.048666 0.256284 -0.311521 -0.142357 -0.043818 -0.053682 0.030378 0.225165 0.023759 -0.329669 -0.363938 0.043326 0.330624 -0.019804 0.083854 0.285028 0.395313 -0.144869 0.041623 0.159957 -0.286934 -0.066219 0.056914 0.167207 0.035952 -0.117519 -0.046290 0.244576 0.054821 -0.258911 0.214214 0.549613 0.240238 -0.070184 0.362311 -0.139987 -0.240162 0.286757 0.567318 0.024153 0.005086 0.732462 -0.048190 -0.014686 0.038881 -0.067090 0.218015 -0.014285 0.010274 -0.035303 0.080227 -0.065780 0.110445 -0.325438 -0.297356 -0.403390 0.150038 0.263083 -0.394645 -0.170888 -0.033943 -0.075187 -0.108498 -0.099786 0.510518 0.249318 0.407468 -0.333265 0.083932 -0.076258 
bn:14082616n 0.241617 -0.099388 -0.313190 0.342243 -0.619200 0.071103 -0.473878 0.117547 0.865398 0.040182 -0.097335 -0.143858 -0.390030 0.157522 0.284391 0.424817 0.029812 0.611098 0.044253 0.591680 -0.091930 -0.349369 -0.016970 -0.202487 -0.079506 0.473792 0.008993 0.180486 0.142751 -0.102211 0.772220 0.257844 0.173469 0.049847 0.265240 -0.028358 0.056488 -0.415995 0.341482 0.344637 -0.472798 0.308361 0.004535 -0.335680 -0.194167 -0.077909 -0.013375 -0.043128 -0.241755 0.464878 -0.502599 -0.222472 -0.345641 0.129553 -0.135030 0.219190 0.243868 0.346575 0.513318 -0.102513 -0.182903 -0.330894 0.403077 0.000187 0.058549 0.242237 0.518180 -0.285324 -0.473181 0.211141 -0.157476 -0.353836 -0.575160 0.183368 -0.708930 0.362202 -0.422411 0.324261 0.734880 -0.275439 -0.071270 0.477808 -0.319551 0.094560 0.207469 -0.171734 -0.064645 -0.251472 -0.164765 -0.309291 -0.070081 -0.254197 -0.079190 0.151283 0.336019 0.483706 -0.318535 0.038826 0.220235 0.269202 0.096567 -0.012442 0.041281 -0.063661 -0.293628 -0.110580 0.552903 0.138912 0.052186 0.382076 -0.028956 0.302542 -0.396040 0.022599 -0.438174 -0.147090 0.037181 0.115834 -0.047134 0.386811 0.161672 -0.337007 -0.392506 0.263296 0.072981 -0.031377 -0.146377 0.435521 -0.330225 0.026616 -0.054396 -0.094253 -0.139789 0.182562 -0.338221 0.361861 0.518730 -0.508233 0.586361 -0.166370 0.432161 -0.104261 0.490844 0.251053 0.017923 -0.120112 -0.228632 0.184150 -0.012463 -0.127837 0.359362 0.931639 0.151855 -0.147285 0.155680 0.345529 -0.221999 0.059139 0.123574 -0.004160 0.132453 -0.733145 -0.095998 0.435132 -0.156554 0.452629 0.328379 0.184079 -0.025445 0.149720 0.743700 -0.311619 -0.056278 0.671368 -0.321495 -0.124626 -0.407538 -0.105154 0.081033 -0.048140 0.167428 -0.418818 -0.027055 -0.081292 0.236722 -0.307895 0.876100 -0.285325 0.550392 0.006974 0.126903 -0.576124 0.338786 0.468007 -0.187449 -0.585703 0.464621 0.196526 0.132795 0.100440 0.135409 -0.413548 0.029669 -0.215167 0.028674 0.227381 0.079515 0.214075 -0.214391 -0.233815 0.271403 -0.058409 -0.383464 0.510026 0.398397 -0.123389 -0.000714 0.208546 0.154457 -0.265890 0.144224 -0.473524 0.149223 -0.194725 -0.362172 -0.349926 -0.409518 -0.077675 -0.171870 -0.077202 -0.097636 0.274682 -0.409501 -0.505177 0.015868 -0.409471 -0.373097 0.041803 0.205366 -0.073109 0.297179 -0.281594 -0.190800 -0.142611 -0.312306 0.114018 0.006455 -0.183555 -0.155885 0.165773 0.523168 -0.349614 -0.116469 -0.119283 -0.018324 -0.100311 0.442954 0.167395 0.077545 0.034457 0.131272 0.215103 0.145862 -0.251700 0.209533 -0.109008 0.143490 0.025465 0.634503 0.021699 -0.550600 0.393828 -0.274312 0.200347 0.262318 -0.218475 0.022541 0.071549 -0.029771 -0.616896 -0.596066 -0.194317 -0.610501 -0.057423 0.262199 0.075478 0.481599 0.079673 -0.187966 -0.401562 -0.121740 0.051115 -0.351553 0.221906 0.599407 0.339206 -0.023599 -0.404675 -0.339471 -0.199292 
bn:00077033n -0.394868 0.123166 0.051492 0.706062 -0.325897 0.549245 -0.239766 0.048650 -0.122113 0.546604 -0.368080 0.333507 -0.067321 0.721744 -0.224577 -0.333179 -0.011528 0.038467 0.246892 0.192931 0.563033 0.169498 -0.303910 -0.223319 0.097750 -0.273408 0.031405 0.221866 0.640989 -0.272946 0.108272 -0.365607 -0.475269 0.286608 0.059267 -0.298280 0.427002 0.508840 0.136122 -0.091954 -0.195073 0.174840 -0.016820 0.098229 -0.056472 0.354978 0.470011 0.007187 -0.082486 0.124715 0.521285 0.339498 -0.029346 -0.183527 0.121625 -0.020797 0.038557 -0.403011 0.625303 -0.160583 0.211600 0.620813 -0.070911 0.397987 -0.429597 0.293241 -0.119655 -0.162839 -0.280266 -0.131697 0.473196 0.252929 -0.499670 0.214227 -0.135927 0.447678 -0.536977 -0.348712 0.320596 0.377868 0.160860 0.393911 -0.313676 -0.204469 -0.150792 -0.508608 -0.532228 0.447313 0.313836 0.111037 -0.210825 0.037277 -0.124123 0.223880 0.022344 0.074781 0.303481 0.024909 -0.277064 0.282305 -0.237727 -0.220643 -0.520444 -0.489635 0.410035 0.003023 -0.163273 0.184742 -0.133269 -0.209985 -0.187536 -0.020781 0.220780 -0.032072 0.103699 -0.267196 0.165857 0.235913 0.125096 0.533341 0.284935 0.059399 -0.051289 -0.050443 0.334127 -0.245512 -0.208881 0.088371 -0.295343 -0.151187 0.210677 -0.171106 0.482397 0.013426 -0.014845 -0.315972 0.127580 -0.366040 0.693059 -0.164243 -0.138937 -0.456866 -0.124400 -0.612134 -0.195689 0.203636 -0.124371 0.532022 0.044057 0.428686 0.053173 0.296934 -0.117235 0.258088 0.165016 0.226840 0.200895 0.193339 0.006878 0.315597 -0.179603 0.080831 -0.317193 -0.015957 0.151937 -0.419828 -0.141249 0.060907 -0.146850 -0.161482 -0.003628 -0.171741 -0.017836 -0.001024 0.325033 -0.276522 -0.172916 -0.029733 0.144432 0.230608 -0.060483 0.001083 -0.394899 -0.128367 -0.293217 0.003786 0.084843 0.222902 -0.429453 -0.156849 -0.305341 -0.101874 -0.053071 -0.327880 -0.180910 0.150857 0.507452 0.266095 0.201427 -0.072269 -0.558722 0.352471 -0.717837 -0.184991 0.262416 0.982925 -0.557863 -0.115789 -0.727339 -0.087417 -0.261389 -0.330195 -0.216738 0.113668 0.325795 0.273251 0.231914 -0.070078 0.557478 -0.065182 0.095365 0.364788 -0.255026 -0.072968 0.067227 0.274198 -0.311114 -0.053515 -0.260363 -0.821541 0.097707 0.554737 0.596517 -0.280547 0.060692 -0.021951 -0.105180 -0.227458 0.110092 -0.050128 -0.240945 -0.509823 0.106424 -0.405608 0.310311 -0.201496 -0.223039 -0.104343 0.202295 -0.681804 0.011899 -0.202167 -0.154948 0.402815 0.466592 0.303271 0.179466 0.206413 0.014643 0.053809 0.476112 -0.061618 -0.036353 0.115248 0.308614 -0.111585 -0.700411 -0.261029 -0.137529 0.079012 -0.232717 -0.449052 0.135683 0.383075 0.568695 0.337044 0.069383 -0.273451 -0.062980 -0.009891 0.140499 -0.042500 -0.165879 0.306662 -0.044402 -0.149438 0.094726 0.244812 -0.528046 0.233550 -0.140201 0.176313 0.095580 -0.181019 -0.423780 0.298393 -0.247958 -0.380367 0.130937 0.216292 
bn:03413962n 0.290097 0.060002 -0.202213 0.098807 -0.281351 0.059801 -0.320926 0.142331 0.227244 -0.202990 0.361696 -0.050370 -0.095444 -0.358736 0.128677 -0.295477 0.034757 0.266554 0.085858 0.327098 0.072182 -0.236375 0.023799 -0.317303 -0.165619 0.359295 0.010997 0.389954 -0.022688 0.471938 0.210085 -0.069163 -0.187791 0.089228 -0.013655 -0.188754 -0.318845 -0.214161 0.439050 0.396281 0.062107 -0.315476 0.143631 -0.009600 0.026348 -0.331987 -0.174264 0.140040 -0.106797 0.032919 -0.405145 0.561281 -0.016227 0.213894 0.135144 0.186363 0.187480 -0.058186 0.152408 -0.183544 0.406519 -0.165223 0.343107 -0.150846 0.410489 -0.087327 0.575955 -0.170905 0.172240 -0.094800 -0.150467 -0.012511 -0.281434 -0.079498 -0.067912 0.432522 -0.327623 -0.053478 0.046020 0.135087 0.267276 -0.093872 -0.173309 0.611351 0.472004 -0.019176 0.145678 0.379675 -0.599570 0.405118 0.140253 -0.069577 0.432361 -0.017496 0.325894 0.203322 -0.069070 0.199565 0.142345 0.122948 0.099959 -0.210658 0.098424 -0.119658 0.180256 0.046373 -0.161287 -0.187225 0.495954 0.500752 -0.096726 -0.088317 0.185194 -0.161421 -0.112480 -0.035098 -0.078055 -0.220984 0.162758 0.017461 -0.161278 -0.462539 -0.186572 0.424993 0.244958 -0.120695 -0.134712 0.271547 -0.289514 -0.157473 -0.160456 0.104214 0.026098 0.039532 -0.203755 0.103516 0.509311 -0.068798 0.451594 -0.071881 0.126208 -0.207521 0.071046 -0.083752 -0.008722 -0.246875 0.334413 0.201427 -0.178819 -0.159171 0.168422 0.137953 0.355494 -0.093946 0.264646 0.185258 -0.116542 0.105527 -0.180195 -0.053854 0.128971 -0.029128 -0.062446 0.122054 -0.156704 0.582326 0.265849 0.301717 -0.132811 0.165113 0.319833 -0.193350 0.074968 0.459683 -0.185139 -0.358040 -0.048335 -0.323660 0.419167 -0.093093 0.460524 -0.300740 0.116613 -0.119167 -0.001365 0.094203 -0.164818 -0.223909 -0.164828 0.011562 -0.064187 -0.239707 -0.024514 0.233954 -0.255906 -0.351431 -0.082330 0.018282 -0.392771 -0.037014 0.489776 0.072436 0.114068 0.290595 0.145708 -0.496713 -0.021792 0.079382 -0.473756 -0.323947 -0.257926 -0.310056 -0.036874 -0.063090 -0.380450 0.455675 -0.149704 -0.213355 -0.009089 0.290416 0.203312 -0.253789 -0.133968 -0.158453 0.216789 -0.269420 -0.147980 -0.281219 -0.034020 0.047978 -0.205740 0.217099 -0.341264 -0.237318 -0.050933 0.268575 0.104614 0.032356 0.110311 -0.126700 0.418559 0.167696 0.061154 -0.235525 -0.356881 0.031042 -0.175979 -0.214578 0.009444 -0.324329 -0.069207 0.185072 -0.149054 -0.006884 -0.291906 -0.143937 -0.053030 -0.180865 -0.086088 0.157571 -0.412382 0.577180 0.289099 -0.193396 0.018973 0.134650 0.007995 0.101337 0.453356 0.359830 0.011417 -0.025166 -0.009330 0.062968 -0.205108 -0.065734 0.005298 0.190279 0.018274 -0.148508 -0.304796 -0.011017 0.202073 0.058724 0.026773 -0.014373 0.293241 0.073374 -0.101688 0.108829 -0.033054 -0.065077 -0.443632 0.130203 0.501788 0.172925 0.155949 -0.369822 -0.342272 0.293978 
bn:13925511n 0.214690 0.161364 0.064358 0.160115 0.026729 0.071501 -0.344869 -0.209217 -0.087852 0.476031 -0.308207 -0.032909 -0.439655 -0.012873 0.114374 -0.539461 0.089000 0.098852 0.096217 0.283133 0.295300 -0.369018 -0.174593 -0.234093 0.117955 0.323535 0.248590 0.373935 -0.042157 0.041520 -0.198820 -0.184965 -0.169428 -0.051515 0.136319 -0.597731 -0.066383 0.203579 0.091557 0.098804 -0.394339 -0.190457 0.312410 0.242917 0.042617 -0.246407 -0.069850 0.273714 -0.072383 0.325653 -0.027289 0.394243 0.162562 0.441764 0.044057 0.216605 0.338440 0.300968 0.278008 -0.139634 -0.052568 -0.011885 0.044736 -0.139633 0.340683 0.034403 -0.070292 0.184639 -0.019240 0.138389 0.208872 0.351390 0.037550 -0.206439 0.277484 -0.061976 -0.076137 -0.192163 0.071140 0.109003 0.263802 0.047717 0.148565 -0.013932 -0.087839 0.322508 0.208706 0.106955 -0.436642 0.209154 -0.042076 -0.264268 0.590764 0.081072 0.303558 0.153864 0.207663 0.320644 -0.028505 0.391792 0.417175 0.015226 -0.291396 -0.049299 0.278124 -0.173846 -0.196221 -0.435163 -0.373265 0.409648 -0.095810 -0.023957 0.232306 -0.195010 0.139635 0.210488 0.111886 -0.068794 -0.094494 0.254904 0.086006 -0.129346 -0.035831 0.305066 0.035396 -0.244790 -0.054939 -0.110226 -0.054647 -0.125632 0.094118 0.089402 0.077929 -0.175227 0.221088 0.127034 0.006212 -0.171792 0.285110 -0.219100 -0.036486 -0.331065 -0.252533 0.181029 -0.444328 0.107797 0.148164 0.769629 -0.245740 -0.077319 0.304966 -0.117678 0.235844 0.254902 0.321563 0.054330 -0.060866 0.109054 -0.329740 -0.398889 0.236638 0.007677 0.135186 -0.065730 0.425013 0.493148 0.286551 -0.181900 -0.135722 -0.015158 0.426198 0.145615 -0.192871 0.305038 -0.182540 -0.395792 -0.358054 -0.281822 0.392897 -0.077156 0.167296 -0.058297 0.042008 -0.169970 0.310974 -0.184650 -0.302963 -0.286306 -0.238997 -0.128245 0.055440 -0.304332 0.101261 0.035025 -0.053833 0.245710 0.011360 0.059706 -0.164285 0.182418 0.287979 0.024468 -0.071210 -0.006549 0.266997 -0.466195 -0.094337 0.033672 -0.374355 -0.211380 0.117772 -0.031156 0.349426 -0.199932 -0.317415 -0.020806 0.072185 -0.134788 0.133980 0.336541 0.004025 0.002927 -0.319452 -0.146121 0.053213 0.167186 -0.198926 0.349020 0.311452 0.148807 -0.135179 -0.026972 0.104300 0.215020 -0.225467 0.291377 0.197145 0.084566 0.092087 0.099622 0.378689 -0.065954 -0.123340 0.204884 -0.288861 -0.253073 0.068012 -0.029386 -0.330900 -0.098555 -0.237808 0.303304 0.173895 -0.224501 0.158074 0.216264 0.111661 -0.088146 -0.122627 0.294708 -0.293296 0.656350 -0.124164 -0.187036 0.135092 0.219467 -0.116372 0.084787 0.234670 0.210499 -0.232613 0.243653 -0.132515 0.109003 -0.255040 -0.036278 0.188317 0.309116 0.160508 -0.021498 0.158462 -0.267347 0.145558 0.019196 -0.253499 0.248100 0.536146 -0.056032 -0.136629 0.085381 -0.079857 -0.069414 -0.161514 0.243835 0.123806 -0.106658 0.297860 -0.210820 -0.070683 0.298093 
bn:00147107n 0.137812 -0.233941 0.053913 -0.076950 -0.206945 -0.151689 0.048487 -0.102693 -0.241880 -0.019831 -0.046897 -0.292880 -0.497913 -0.168754 -0.021467 -0.147298 -0.162767 0.046239 -0.314254 -0.022837 -0.079370 0.085638 -0.084625 0.148359 0.226614 0.055239 -0.103763 0.269404 0.104826 -0.074886 -0.121648 0.061432 -0.345351 -0.000287 0.116983 -0.497899 -0.137257 0.106767 0.143441 -0.073676 0.065166 0.110193 0.139450 0.013135 0.008693 -0.308416 -0.267539 0.298008 0.098612 0.002043 0.171680 0.395389 -0.029157 0.093171 0.207708 -0.100571 -0.055958 -0.093886 0.330920 -0.145432 0.518890 -0.085954 -0.046385 -0.077989 0.196739 0.047015 0.457417 0.028170 0.177130 0.009111 -0.093839 0.088748 -0.215981 -0.207666 -0.011507 0.176614 0.106436 -0.112644 0.235526 -0.120332 0.298595 0.238725 0.045087 0.208902 -0.301872 -0.066418 0.091858 -0.052394 -0.242106 0.129953 0.029056 0.220629 0.081101 -0.215512 0.256816 -0.125859 -0.148205 0.176969 -0.147292 0.238160 -0.341197 -0.075152 -0.077202 -0.145667 0.271343 -0.072686 -0.215328 -0.059374 -0.265344 0.408171 -0.254176 -0.096024 0.178952 -0.257099 0.272784 0.292276 -0.019166 -0.090153 0.217802 0.152538 0.124845 -0.425481 0.079149 -0.089993 -0.270075 -0.155248 -0.349113 0.123496 -0.138987 0.015799 0.278743 0.030075 0.528841 -0.495455 0.409117 0.014021 0.011463 -0.001369 0.254839 -0.014960 -0.340318 -0.568994 -0.040614 0.241960 -0.071629 -0.006779 -0.117165 0.340806 -0.108650 -0.028517 -0.215645 0.039836 0.236025 0.188387 -0.158123 0.295686 -0.370219 0.087612 -0.036513 -0.314291 0.261754 -0.188508 -0.291100 -0.270960 0.367696 -0.173448 -0.117519 -0.050569 -0.127934 0.021043 0.217674 -0.071375 -0.050701 -0.027953 0.122531 -0.130305 -0.334407 0.039682 -0.031855 -0.157584 0.155740 -0.342653 0.071893 0.216129 0.174616 0.217811 -0.199964 0.024292 -0.362240 -0.154391 -0.137199 0.037777 -0.109199 0.067239 0.052903 0.098692 -0.002588 0.102926 -0.213495 -0.045575 0.269452 -0.010454 0.227395 0.042217 -0.119923 0.123901 -0.190222 0.051013 -0.278393 0.098770 0.174651 0.109204 0.051698 -0.189792 0.051127 0.263727 -0.089003 0.064828 0.258608 0.078628 0.082656 0.174100 -0.192131 -0.016583 -0.230381 0.123267 0.284987 0.050367 -0.173695 0.381827 -0.025960 0.055113 -0.287021 0.258768 -0.202760 0.055618 0.065522 -0.117297 0.208495 0.080033 -0.097572 -0.282987 -0.069542 0.114295 -0.025212 -0.146432 0.490062 0.183255 -0.257853 -0.272037 0.004707 0.048347 -0.234521 0.066386 0.282513 0.317278 0.219715 0.330852 0.024863 -0.130001 -0.155198 0.123203 0.057695 -0.420023 -0.021053 -0.021992 -0.246603 -0.119060 0.082021 0.098717 0.052383 -0.200378 0.012783 0.302664 -0.184163 -0.057469 0.023898 0.326600 0.263648 -0.089311 0.187654 -0.253303 0.069101 -0.071930 -0.009613 -0.075098 0.347344 0.491248 0.041498 -0.000022 0.163647 0.059036 -0.029247 0.149841 -0.111476 0.117315 -0.067518 -0.074327 -0.203228 0.197519 
